{
  "version": "v3",
  "schema": [
    "rsi_inv_lag1",
    "volatility_shift_ma3",
    "bb_position_inv_ma3",
    "rsi_vol_interaction",
    "vol_regime",
    "fib_dist_min_atr",
    "fib_dist_signed_atr",
    "fib_prox_score",
    "fib0618_prox_atr",
    "fib05_prox_atr",
    "swing_retrace_depth",
    "fib05_x_ema_slope",
    "fib_prox_x_adx",
    "fib05_x_rsi_inv"
  ],
  "buy": {
    "w": [
      -0.005878946812259226,
      -0.2383396742303388,
      0.46553421190777217,
      0.11707821637403229,
      0.2692563253822471,
      0.22652067234774395,
      -0.22652067234774395,
      3.7863786930573907e-06,
      3.9938050495900065e-06,
      3.1031826865557373e-06,
      -0.0007504549136911088,
      2.500905612212249e-08,
      9.652726315957016e-10,
      -1.315552386068376e-06
    ],
    "b": -4.44981130488855,
    "calib": {
      "a": 1.0,
      "b": 0.0
    }
  },
  "sell": {
    "w": [
      0.005878946812521544,
      0.2383396742306602,
      -0.465534211907791,
      -0.11707821637401661,
      -0.26925632538238364,
      -0.22652067234774192,
      0.22652067234774192,
      -3.78637869313936e-06,
      -3.993805049676066e-06,
      -3.103182686619533e-06,
      0.0007504549133982027,
      -2.5009056122627352e-08,
      -9.652726317946784e-10,
      1.315552386106045e-06
    ],
    "b": 4.449811304888651,
    "calib": {
      "a": 1.0,
      "b": 0.0
    }
  }
}
