{
  "version": "v3",
  "schema": [
    "rsi_inv_lag1",
    "volatility_shift_ma3",
    "bb_position_inv_ma3",
    "rsi_vol_interaction",
    "vol_regime",
    "fib_dist_min_atr",
    "fib_dist_signed_atr",
    "fib_prox_score",
    "fib0618_prox_atr",
    "fib05_prox_atr",
    "swing_retrace_depth",
    "fib05_x_ema_slope",
    "fib_prox_x_adx",
    "fib05_x_rsi_inv"
  ],
  "buy": {
    "w": [
      0.2470601642972853,
      0.25885929826524895,
      0.03727255046306875,
      -0.39337115221459856,
      0.09470126661867456,
      0.0058421547659966815,
      -0.0058421547659966815,
      -3.6267293593278745e-08,
      -3.5717686452861826e-08,
      -2.005062435676047e-08,
      -0.018795454480200854,
      1.82549737390052e-11,
      -1.9712342031004916e-10,
      1.2665974702712351e-08
    ],
    "b": -0.023927221731740465,
    "calib": {
      "a": 1.0,
      "b": 0.0
    }
  },
  "sell": {
    "w": [
      -0.24706016429727942,
      -0.25885929826525583,
      -0.03727255046306758,
      0.39337115221461283,
      -0.09470126661866765,
      -0.005842154765995266,
      0.005842154765995266,
      3.6267293593262625e-08,
      3.571768645284596e-08,
      2.005062435675156e-08,
      0.018795454480192146,
      -1.8254973738998377e-11,
      1.9712342030996127e-10,
      -1.2665974702706731e-08
    ],
    "b": 0.02392722173172074,
    "calib": {
      "a": 1.0,
      "b": 0.0
    }
  }
}